export default [
    {"weights":[[[-0.7288019658311247,-0.5417300484365803,-0.47941843165452713,-0.5335728491440528,-0.5417124594364653,0.8032133354189637,0.22119766493690562,0.062479016723839376,-0.6196047858111791,-0.08170920352376498,0.782068164206664,-0.13810253165619057,0.12632348610878363,-0.5442419609180242,-0.0678379860024565,0.9619719294371656,0.697638352621659,-0.7017474134885506,-0.8684413584723423,-0.5056531338593016,-0.39915576254027796,0.1391479693159683,-0.6907880355583949,0.6953767383005496,-0.14770756335270452,0.3377220921095416,0.07784016417043516],[-0.11651937305161297,0.7435577286517527,0.8662500985378365,-0.08043449700237781,-0.3701692113714308,0.522067762886171,-0.7646363857876066,0.9922442771013906,0.015945288511704625,0.8798340685533961,-0.5379320888854093,0.34694466723758755,0.7538379348704498,0.6334759267082171,0.5095176551248057,-0.7040290331932146,-0.8717258081359773,-0.8974298903186879,0.16073978864500527,0.9152976093835044,0.00689336783658101,0.4748517955243057,0.6443805530325575,-0.09034893398445742,-0.1830132468342729,-0.9050605140127472,0.6995472286327895],[0.9282961222278909,0.7635783691815048,-0.7350182025534164,-0.7890785088198644,-0.7376088849141471,-0.5834665165982056,-0.016597649872514886,-0.02438874141022218,0.7100016734389323,-0.36778433360326623,0.4459874068079648,-0.6125028502297951,-0.3294926012278019,0.8257781397315558,-0.17518381220004642,0.41888146636896995,-0.80434280166312,-0.8454805022856986,0.7839634256267272,-0.7324366964154057,0.3478580516587839,0.6712959663286528,0.06323121626455475,-0.012625184286409574,-0.9781291589845948,-0.0022189588287067075,0.1943318598350814],[-0.38042911127926926,-0.7025525704832685,-0.5294834772173727,-0.022303723679093057,0.9624475782534248,-0.6803429881161405,0.020559386794607892,0.5052667659763892,-0.5282491460118064,-0.12308489071257123,-0.6754397397471181,0.3603753965184482,-0.5759273302838932,0.9518290476298779,0.0925748984030128,0.17259714389875036,-0.5835198978824989,0.004415306991837564,0.5099145067912927,0.584447513433636,-0.02021778478852987,0.21326450716410372,-0.2101396291997375,-0.36865551899974225,-0.2823516297567541,-0.06369030773577045,0.36777818488311054],[-0.13659245678020904,-0.9278624573022802,0.6971535072791304,-0.8970239486892613,0.15023714970653046,0.7203379293239123,-0.5432196953586113,0.8846485833622553,-0.1838420301343704,0.9063862388131416,0.409151591524076,-0.1507799207156948,-0.8586285608318471,-0.30830928112063116,-0.28020141394747133,0.24759569308018659,0.3977953060311572,0.9561953165077592,0.44416497678387845,-0.06803443519146057,-0.8017523358739398,-0.5168754272245688,-0.15092056235295725,-0.5447884991378622,-0.048245147591652326,-0.22209760544804036,0.15925587540241137],[0.9642839549265232,-0.1602022606471296,-0.5113929076134789,0.28429149239423523,-0.8789778746834318,0.25550843371768384,-0.9493892996575592,-0.9641498007403104,-0.8190760409768063,0.250056672608193,-0.5387734061787639,-0.2790246538351586,0.30456704063426265,-0.6248877544741318,-0.20422769790379647,-0.5990218161201386,-0.07886001147795518,0.3526537228291331,-0.703380825740707,0.34281662405354085,0.5339759088233511,-0.7095114490122447,0.3039994906827732,0.7949996944699236,-0.7697719649158143,-0.36559637490859886,-0.5179327857023108],[-0.4220294603345893,0.9889506202717588,0.7143493704517145,-0.19764655522264007,-0.4978272937181698,0.30646789242361283,0.9882223839050446,-0.8856670037853434,0.5041110965927738,-0.5752258370836203,-0.8884387084997201,-0.36132826502309223,-0.016424147304369807,0.8840245879166431,0.23016573647401373,-0.9214238167065312,0.9814668696786484,-0.9850897879566092,-0.6411517098062416,-0.11780372547959006,0.6637600752994013,-0.8619440293756075,0.578223481187234,-0.41722093411943195,0.8541310856228637,0.05070141115576199,0.10585234188302017],[0.5659417542672402,-0.6694163236065216,-0.042345826013893806,-0.16103729901070585,-0.46962849602110124,0.6967055664195834,-0.8140565035787257,0.8612754651093693,-0.7866151606323748,-0.7631671621983731,-0.8472292213218009,-0.14636865200469895,0.2522327588199311,-0.15114435397196413,-0.4849046347638999,-0.5242616965660889,0.12496017194945797,0.7314318255724954,-0.6249803580514741,0.3077035648658506,-0.25538139773717683,-0.07692919854096525,-0.2872768767917826,0.5902573825449999,0.5215607457422475,0.05761231301901937,0.8132862276569033],[-0.9592050514223867,-0.15544140224281344,-0.7077714686558672,-0.11998290396327116,0.3276607954875872,0.7664681033325489,-0.2535037804391833,-0.6282321047006914,-0.5859228921057493,0.733151621423664,0.3241310731201543,0.5408636793216326,-0.24910758775084352,-0.3314082765064077,0.5004854104724181,-0.9327717749359326,0.5258510223156141,0.045168234142897834,0.53848779426353,-0.4625415746762487,-0.3872962460917426,-0.09127605057633792,-0.832371429275494,-0.3889963188534522,-0.6135007345823258,0.24664279898688157,-0.4900283965403731],[0.07726033702976709,0.9152708626458188,0.27219244658498365,0.46434662921532466,0.025659943873870716,0.28781071020605786,-0.9496833962075804,0.8093264747819635,0.6048095640829039,0.7456788918937951,-0.9653966217668621,0.17436153935913712,-0.2392783562862837,-0.20008794314655898,-0.5205032281921413,-0.020201647270268186,-0.21351024077108027,-0.06694735708899024,0.3261226960298145,0.995615036809236,0.6414352700397412,0.23463122861969987,0.8599673826307566,0.25822706621922986,0.5945662288154985,0.9881144942977076,-0.232268735631187],[-0.12281824976983069,0.2821296957504704,-0.8126850690380936,-0.27862264243795565,-0.7884177409760409,0.929764911771112,-0.5392585183206458,0.6415806113661233,0.16530716214946262,0.4563961004481101,0.06419721940048007,0.21792785238956336,0.749985646620591,-0.7059289498767471,0.7693729625360146,0.9279096583889448,-0.24318779597392615,0.8480685898950839,0.0912737920739346,0.05473467720330705,-0.8582372380984467,-0.3261941046373962,-0.8875509998812676,-0.8320366617844908,-0.1071039649502934,0.030555222986322406,-0.2556825439428012],[0.8011627738601224,0.7144325699030274,0.44600213031119207,0.28457183207853154,0.2829179105352946,-0.4788958403152539,-0.5367474874418989,-0.9876607727047539,0.8426034013027603,0.3340249662836752,0.8304049180066615,0.6733333083249207,-0.7387962070851835,-0.7253547120817379,-0.9529900510792872,0.32092894261538385,0.7376063926855396,-0.7281495726562519,-0.2971754918534466,0.6505407471888591,-0.4043498574290685,0.10263706962657171,0.17644513431815012,-0.8861900503750881,0.3725410026225182,-0.25080752479007407,0.1978322054203181],[-0.9715700698255056,0.35885815985367175,-0.5634690284025532,-0.14652181491817773,0.5224968420806504,-0.4756841838699182,-0.7326372528719496,-0.6602408193530698,0.16894736597120996,-0.23345402184586783,0.9689049830024503,-0.7513512356351897,-0.1892613134674841,0.5616027712506675,0.691735141613302,-0.9999131863786461,-0.7259590666664129,0.5923492692057493,0.37496430356800614,-0.22237157109459238,-0.35222777853110765,-0.2604023369190531,-0.8611356937059056,0.2309059676594094,-0.44896798324617704,-0.3521248009797846,-0.6355435300968564],[0.5042909949832532,-0.7757969027415785,-0.9280743999024543,-0.34713667063817866,0.1322538352406175,-0.5161521448083097,0.8188360387457636,0.7431609725996933,-0.6984515029133807,-0.8587787341485984,0.7182192647748651,0.0026567668336427985,0.7240258521245795,0.3102199987571357,-0.5656668427338936,0.8568505025486606,-0.3924337402507603,-0.1071298549641666,0.29599824029151556,0.4764634178372904,-0.9066984477148115,-0.15086821118329752,-0.8120976693024486,-0.6181513626464779,0.43192139234592997,-0.8460641912053948,0.35174633002060984],[-0.4848291880791793,0.5304351291347564,-0.06659484894132905,0.7955289644274224,-0.3609643547039294,0.7916916847461271,0.5907324730716716,0.19280760586394985,-0.5989128645521875,0.06556442717200772,0.039640246075737906,-0.5609213809758447,0.14275889042219791,0.11440018268571883,0.593964056018363,-0.6597622845460998,-0.01583084981084637,0.34682130261036814,-0.9954700907332281,0.6473036987381819,-0.23346884518310906,-0.3195319400451502,0.11789053126701221,-0.32664071187051746,-0.511007570019343,-0.434797494674672,-0.07686519538877734],[0.4720169325403898,-0.6536360028275148,0.7366240755338858,-0.9963350422750135,-0.14742333901470772,-0.7378546476070276,0.6550027425247236,-0.05937015057069095,0.46305014282100077,-0.4789355978649392,0.6585128733326764,0.7038388968765692,-0.06287491909843146,0.9324365507293377,0.3776865461328822,-0.12168569170664423,0.7907615052658663,0.3041875843951347,-0.997050460687356,-0.5625456409109901,-0.8979060104490193,0.3731974560472655,-0.8080824070890826,-0.6190990138960477,0.9224178476734135,0.8400304739731399,0.4389866941180336]],[[-0.617525961939803,0.4153891186556904,-0.7526882640368728,0.028751650020784947,0.5001617335248336,-0.7210680543238683,0.08603868698411743,0.5733524279951703,0.8992900117118898,0.5430197715532663,0.5519587846821707,0.216958665181473,-0.520455509416017,-0.9986410974227073,-0.7587096358776448,-0.46482594189709747],[-0.013367215146152578,-0.7873124760220103,0.6273099679788205,0.8848295753726463,0.6541414137004473,-0.4216748690291747,0.3460908438448991,-0.6062465122202796,-0.39246300988546823,0.46077794337083233,-0.8647072553567581,0.6024964812288451,0.7045924724067034,0.8530337755753772,0.97720284208759,0.06488742718280305],[0.9134608523116179,-0.7695888561563522,0.3422015331430477,-0.9909034449625787,-0.624921177610053,0.36387577628155965,0.06805040514247551,-0.725171084475503,-0.5234843274580103,-0.5263876586224612,-0.5630814511757589,0.06577289392812125,0.5393861481462703,-0.020512535941249688,0.6120031979044183,-0.9103306006151359],[0.6345339008416477,-0.007229651028566764,-0.94653805253277,-0.019765611051739462,0.9298027871864112,-0.3859725548986206,-0.06557731516383836,0.8899731123015768,-0.07006122034381823,0.49244075446983127,0.6101551112715766,0.8641494806419128,0.7204203574921264,-0.0594424504711073,0.37770463902588514,-0.36781749795887153],[-0.8127093396227463,-0.6289085369290959,-0.8981575467041822,-0.8156170342734028,0.3382844197189194,0.10510210846622892,0.9488596611598084,-0.2168226090986174,0.8116635034668294,-0.4804244624881946,-0.1258798143585942,-0.9377722343584352,0.8062855146139158,0.5088875609217682,0.4837302230213725,-0.9991918331420417],[-0.1308307390370591,0.9946428686772855,0.14949178993357926,-0.5382050653612458,-0.9662023368956074,0.10505430608860689,0.9429958924493236,-0.3648063796272103,-0.5457888656753287,0.17591690822821926,0.01439122617061539,0.7348222223711178,0.7553452844376438,-0.07361882161707367,0.9764252703435576,-0.17093685226131283],[0.037747638480543966,-0.23247228846421253,0.2809823203059927,0.022451463238039704,0.8229612787192928,0.7050189242845808,-0.9830836790986686,-0.05624493877706582,-0.4055673564407112,-0.8890251564485094,0.6644219375805864,-0.08485301014912272,0.32125593089933213,-0.11752446294860697,-0.691778899542522,0.24758810570303025],[0.7880302333407849,-0.8201707783946053,-0.9492859936754829,0.380379350656352,-0.9395297305285268,-0.36396982670685807,-0.5400690026172437,0.7422560944264895,0.9081125425882601,0.3294936428573565,0.8552130939438225,-0.382081977744436,-0.03391627056180546,0.15715566336766962,0.3934312741569057,-0.555782289613791],[0.3851702770146477,0.12281370736847386,0.4142583719928181,0.5673730244217201,0.6782955334478422,0.2563468800007178,-0.9158707886485908,0.7631839026983025,-0.2664187638394466,-0.5290361641776435,-0.5173830125308707,0.08535660373343568,0.5478566745692173,-0.8046516573018745,0.8500917441511961,0.496054429930489],[0.13424225232345766,0.9643416006581895,-0.8714829737351426,0.04539404700233307,-0.3597269614384211,-0.5762939732499803,-0.09482429542015991,0.8030668824720273,-0.3343186973237331,-0.9990843051283735,-0.5945240493837969,-0.8153671879746573,0.4098092468343211,0.938183869935814,0.6629654399544429,0.1448041780477447],[0.18266125136027078,0.5253986778325483,-0.577080158505328,0.7253830821550711,0.36059433674710295,-0.45589608758874256,0.8387100704436703,0.38424327952584836,0.9247578793815938,0.42527006671129186,0.322091081220369,0.11869682407999793,0.8181256788792308,0.39187618124536394,-0.9672442985399257,-0.6454502088306362],[0.9402644196896479,0.3198136071031681,0.32700871809516974,-0.4562830285420718,0.13607442114692514,-0.20295221827238263,-0.6242495109630721,0.13935083876700638,0.20879393393708323,-0.09293997338155346,-0.73759941830428,-0.3832916957445094,-0.38734576008084387,0.7835693106200079,0.09156301766246422,0.15983771860944707],[0.012234120037494467,-0.12232675617635191,-0.5268257136049987,0.5160545248411967,-0.08872901440891345,-0.5930317614792351,-0.831577936893312,0.4192489573640654,0.04592660607735777,-0.29919733667745607,-0.567145605380099,-0.6764005946474625,-0.7791638353077941,0.5502774596700415,-0.08608253410620259,0.002304937097286519],[-0.7795925690540377,0.8916333749531922,-0.2847190596171312,-0.3740320264451711,0.03165782951959306,0.08992347080533802,-0.3282655827183172,-0.8834288561980301,-0.6102177100659918,0.7824401512382235,-0.9134388278813503,-0.10698399181730656,-0.00271868054960267,0.2331010254527679,0.6979916646635083,-0.5476306701072269],[0.7041953155551917,0.456464135703611,0.9224080055691939,-0.034897752148880024,0.8251532055722826,-0.5443099362214134,0.22311623326790064,-0.4235375085162141,0.2465000849176331,-0.6992068432560123,-0.012430482173805935,0.9555942143489808,0.7143298083362639,0.6653830894086457,-0.5504941420622038,0.6554439657185984],[0.41767725265153866,-0.7888940595209513,-0.21453409364942067,0.2571985417907716,-0.401171080041264,-0.5920212637088418,-0.5926346064280712,0.28698221282679093,0.5016253745791781,0.6534201420650012,0.39445033848220756,0.02722308284920638,-0.13267675226517506,-0.2403553600742292,0.9999289380133298,0.37509541098117394]],[[0.08521384474769711,0.9482638272884429,-0.49953336685007965,-0.8867314541122631,0.03588862242406243,0.43870668375037924,0.2681685973773642,-0.4934558024299496,0.7940440244506819,-0.1096499371200883,-0.7925807099336946,0.9278322735091562,-0.14869940213749233,-0.33138589595468737,0.9887182190287218,0.9681709731774437],[-0.047306902847458865,0.5594273261078753,-0.863101556958267,0.37939176575014333,0.6944862547633162,0.9947630383515653,-0.4788366807410833,0.8584931641902873,-0.7514704013232376,-0.9971845276269962,0.8836233453223281,0.38638097066095334,0.1261477026119575,0.28424060828039366,0.1124867742238651,0.484188936643398],[-0.8231000553618921,-0.2730512709177173,0.7381357157830917,0.5998082903146527,-0.25738994992414277,0.7736860371776553,-0.2025020475783217,0.5791483663398274,0.39055755527984415,0.345387183049223,-0.018222242235344854,-0.8233178192652391,0.18121265994951097,-0.1635470588339656,-0.885756981795911,0.8276032324709761],[0.6861961340921581,-0.518122908115056,-0.8410475271390303,0.3687647644148915,-0.2846572688025808,-0.8308158209388341,0.30498240258755205,0.11726647398866508,0.08909359893096935,-0.031122572364156387,0.3657050967897342,0.1559911381798078,0.18102566346055715,0.5089876111410101,-0.033617930722873446,-0.6826594899970129],[0.23194189240384544,0.30793668541073993,0.5049729295745213,-0.42879314829056137,0.8297935459171075,0.41530706548467,-0.9133626632077796,0.7017169966698775,0.2373405216729858,-0.9343549461632792,-0.41350129518817313,-0.44437551086604543,-0.6850323338437945,-0.4724261343587033,-0.30807681076266347,-0.5036016329913724],[-0.6496346130830015,0.4231020561165102,0.708682120103354,0.6710380851092275,-0.8014249594693261,-0.0463052479437005,0.521043451306463,-0.3321893384211938,-0.5427165801981433,0.8334673693085857,-0.7848999987499794,-0.08695327679144782,0.25830431122075037,0.8902902940600379,-0.9260470032951509,0.13325581843935774],[-0.0015409219049375977,-0.1717566207496275,-0.7708120266019853,0.3558365952699063,-0.3252456425543051,0.4198790326943409,-0.6631863629590229,-0.5877660118041064,-0.26997107019551514,-0.27102513147571816,-0.42390435048181363,0.8743271782130559,0.3760428637835438,-0.13911337966248372,-0.400250298119055,-0.2639633447272045],[-0.17354190793590973,0.5319042093265982,-0.49161865114373793,-0.2948630160885406,0.33275048599470436,0.8169365155313906,-0.573942075891857,-0.6506366853720889,0.421157047001703,0.25989156226561194,-0.993051271595029,-0.623449666814627,0.7240767297332225,0.5269511192421255,-0.9525477645827833,0.8845708857705388],[0.7165136752799932,0.24794666953499922,-0.3875489137758308,-0.2287655589757822,0.6155874450651702,-0.77430613280919,0.7051820833406968,0.24567254802492222,-0.22381397483911325,0.08122192910067971,0.5461569250015579,-0.7730490392946212,0.6313135699976526,-0.15215572596902227,0.9200916975279081,0.022385725824987546]]],"biases":[[0.11385665600089778,-0.36481014172495296,-0.760328112683935,-0.18263622420203518,0.39368147062096526,0.7584713063506126,-0.6917528025615445,0.40891801026824126,-0.048759241698457245,-0.7580557284625762,0.5726551250216785,-0.3251332027479341,-0.9929309787361422,-0.03813429399481372,0.3589503374382894,0.15923196315137256],[0.06761877350806778,0.9283594880925028,-0.6241721376686775,-0.772851500790984,0.20759170465442978,0.37593775207493696,-0.5261096748126555,0.8546851592286488,0.7498493326906179,-0.3850530421630176,-0.24805833264571664,-0.4741398265814696,0.8164531699781747,0.17050748887980527,0.5093330707289296,-0.9831093933473496],[0.3241222895598601,0.4360258845637439,-0.2464619886576802,0.47730336584370736,0.9804027379361875,0.8023850087238005,-0.7044107335512897,0.6448476481434207,-0.22933516839522516]]},
    {"weights":[[[0.3453240087901337,-0.04880381746980822,0.9179911915691568,0.11024475317642679,-0.5932687971953046,0.23230580211082685,-0.6131132615623316,0.21597366743985447,0.6064120305172,-0.8228337163212838,0.12276108983959189,-0.9101682730103047,0.7158471042406989,-0.6402373324831356,-0.15130195668446822,0.0007476235871024528,-0.18214952565367426,0.53300361014474,0.1826630197172583,0.0907015435105345,0.051934147574949296,-0.60939854683647,0.15200141461694194,0.8051338843252416,-0.3175170094408415,0.0464904807959754,-0.8480258566725234],[-0.36117797413264263,0.9762791974994545,0.9440139140041448,0.26116005080425975,-0.38634274228847376,0.4519487230313666,-0.1366063115749201,-0.7878077510261265,-0.41768902620376025,-0.5128635317291246,0.673555764269615,-0.9064708020674694,0.5328245404967662,-0.36023792795997034,-0.6916423564247145,0.35142942739325145,-0.27123002074971847,-0.6930346871043089,-0.6832350915900114,-0.36493650215325113,-0.09231375350943072,-0.2467068982763223,0.05736197817648092,-0.706254777828554,0.9439628963492264,-0.35945044763731904,-0.13635378363732364],[-0.7192573281025001,0.03608531689227723,-0.9405728272029501,-0.9500335404875053,0.3636543000547463,0.01585916702805923,-0.413159035531498,-0.5370648034326013,0.5614469694381308,0.7164997554743757,0.6188706935939297,0.3291589604943854,0.6017395631178197,0.9533828768632686,-0.20035426193704442,-0.9814063029345936,-0.33198828834122374,-0.05694957139387391,0.5124587832711054,-0.5259083458130056,-0.6112494944032414,0.6283366354211006,0.9525296914063253,-0.39395370699702825,-0.7440038726392122,-0.8085976940001323,-0.6551923559997919],[-0.8536855812162307,-0.4454025100937167,0.03818102240741661,0.3663879455843446,-0.9439849432773708,-0.20608406111907174,-0.06049582831808653,-0.32961886369719506,0.2445213075363748,-0.9555640675134351,0.9775477422970096,-0.836988944277707,0.7611310561807438,-0.6775446264383538,-0.7220316121871182,-0.22965493026663575,0.9464639948392759,0.4060767071971165,-0.2941944445188618,0.5315154023892732,0.5321193582034285,0.3279458674912732,-0.8886002566279676,-0.34908486445411846,-0.6568023050249487,0.668400687350442,-0.7754826816989544],[0.9890041869549635,-0.6170919359133915,0.14364656616801152,-0.6976357644173632,-0.9729288298127767,-0.7086443895824388,-0.2161194659635588,-0.8312424826256302,-0.3286628386642505,0.5198816088846425,-0.8717311554999334,-0.4439281022157173,-0.1586615471512416,-0.7715401187174766,-0.9190613060968698,0.7557711525553081,-0.7893836646539154,0.8316288145535826,0.8825497689282464,0.8056846766786903,-0.46688930325314626,0.6970251744063933,0.3367445972939227,-0.720216436378351,0.11732245219776338,0.02911953576393511,0.5391778440593629],[0.8552667310021596,-0.6956627233368402,0.5051863297283115,0.6585913170774722,0.5187251181372061,0.8434455374922871,0.6545519776259328,-0.6438145435777467,0.09130584256740892,-0.7550492944345062,-0.8513492271746812,-0.5028035156708173,-0.6321327651801427,0.28404109637303554,0.45846443054143293,-0.0911449392995034,-0.7284388726355071,0.5118457293860583,0.7428994740532615,-0.1505278477818197,0.6160608506455909,-0.017370730965714287,-0.21511868441491133,-0.3425554506570978,-0.19230619892454648,0.7626363810693157,0.5566535608258616],[0.2925699983479926,0.15665434882813178,0.7255935497813604,-0.6708520922816108,0.1711190670284095,-0.42164064407807933,0.6168069998509638,0.2660305862998169,-0.48489208792315175,0.9756238749361583,-0.24220851255402387,0.26528459593430265,-0.9911134837574465,0.8802140508683349,-0.3738675995972387,-0.8339856363003713,-0.2371914044725414,-0.532560751506169,0.3183061953489812,0.22058369157848245,-0.4390815614665162,-0.2430070088396068,-0.12391153812244671,0.8584549400525012,-0.0838837842403799,0.949211927003839,-0.33656100105380204],[0.6737550456659185,-0.872233465403077,0.1858010077508636,0.5623775128380526,0.3647701726415349,0.5259210263407201,-0.055045346649986726,0.26392057019024406,0.22052461376793708,-0.6428923455253788,-0.6210359325116404,0.17899454744867604,0.9603937533932441,0.4206606986677759,-0.7520331586297844,-0.33119583130474206,-0.16120478372707092,-0.15425865116542958,0.707574097021944,-0.48371292206360783,-0.5660382071210486,-0.8129042662503041,-0.9954890898186495,0.1630905899264148,0.8071476101290744,-0.24266670341310537,-0.7906275713607416],[0.1325602333945115,0.931810734323721,-0.7053989749132614,0.6807582432650321,0.7686760583525514,0.8876912043166842,0.6178147466003425,0.9047860627589563,-0.44453037170313037,-0.794686870131752,0.8402616296209033,-0.17376074936942354,0.477252065529187,0.55114795486138,-0.6531573906542145,0.8901677383988122,-0.5515189422733382,-0.486010185105092,0.4820587086491779,0.7757921509442651,-0.08889790400325204,-0.02732445735005795,0.8036260444329781,0.7926915876276137,0.8863735076718506,0.6186468258297078,0.8528716149213111],[0.9766361406338513,0.6392838377379588,-0.9882986120315391,0.19920546731957378,0.3315349094884614,-0.6633679643019921,-0.07839490049046516,0.7200371053037271,0.21568016919704736,0.18573732717543434,-0.23749412804100611,-0.08473568497191986,0.19437617883538438,0.2608988998814006,-0.848003824296204,-0.027730511142346703,-0.6158751564326947,0.5122138380840595,0.4757080789395518,0.1914081330907158,-0.3454889136952253,-0.9163976293490768,0.6417700157684116,-0.46438274150736714,-0.47348932381136777,0.7154559758478851,0.9207120958347517],[-0.2566319839849798,0.9593916686218327,0.7874060283724593,0.5908209883088302,0.19189351042720304,0.12096592441987442,-0.5479735898254132,-0.9303553716252715,-0.3753334295357824,0.06564612637242107,0.14213689196884793,-0.5942468254610218,-0.09402946926744393,0.6062222844993665,0.42714048247835956,0.07849763447375357,0.970353067460195,-0.970714936472779,-0.2777081392726486,-0.22574371395819348,0.817321024788686,-0.11971164200028506,0.8007849442688357,-0.34356432951230964,0.2402859146527936,-0.04798181065240259,-0.026161525643067396],[0.009279374313649225,-0.6337979256299002,-0.36413908140069884,-0.29101487483262867,0.9483799811255773,0.9054442199460038,-0.9373688674338294,-0.8401818428346455,0.7893102108235448,-0.13974556384938008,-0.43324476142915325,0.069427652708963,-0.5203981427053863,-0.9738596166994711,0.3434044325829948,0.8218796864355613,0.49213504439673317,0.7820340877680083,-0.13738078945030852,0.6316502938655133,-0.12974743373496178,-0.46592326204746914,0.45396503141696076,0.08364592953764127,-0.6166238768599022,0.2012157760609261,-0.9185253058144656],[-0.047551413746319326,-0.7718593043115112,0.0038997872237680475,-0.861757623970838,-0.5903137570750592,0.893576107576636,-0.6207490054839266,-0.9656322537423323,-0.8477160562053663,0.49421612206175913,0.5420154122290337,-0.5657347909126682,-0.16294608095566288,0.0922236065353026,-0.00022158113409975755,-0.9771444882723945,0.8308896043416985,0.21249734193068903,0.965505252578144,0.1348533498980724,-0.17951368929439981,-0.2262807830187099,0.9035720765994575,0.15290737450124903,-0.7368454322368723,-0.5783950017865522,0.7639350793933524],[-0.47105345917464225,0.12082771681530868,-0.7689710098131775,-0.34892254909261977,0.7301887457221943,0.3156617044280634,0.5311378752126164,-0.9038793073620743,-0.11531025306577192,0.15781185893591143,-0.24087941260948753,-0.6689303224194427,-0.4162070733027705,-0.5283516975794176,0.7994736588529872,0.37833962813187494,-0.7327579371172113,0.8182374191450763,0.7683415793057575,-0.8070797749510663,-0.6409273528299386,-0.6615309435095882,0.3588976071504759,-0.15868403290071198,-0.6892082974954912,-0.49350689661204417,0.28365725588110635],[0.017104721315877036,-0.5173668603224204,0.18067459095106164,-0.7106910795593797,0.2937005067945031,0.04766838850249888,-0.6325542810140665,-0.02826003223838791,0.15172880888894147,-0.6080601540115511,0.4160583205593116,0.7978561830608268,0.50780023971652,0.8088178051147454,-0.11683026845489719,-0.5911157998672083,0.988244946242165,-0.5784809590670807,-0.19856985181200892,-0.9279853456283473,-0.03863523465153573,0.12658927035926615,-0.3334370270184599,-0.13841231616562366,-0.08865802013438717,0.4028648524518692,0.8814843221473447],[-0.599892273123455,0.3126307538729183,0.3278594489891571,0.7659435011207112,-0.676046994942956,-0.025065966212823643,-0.7530705238218336,0.9125150662029493,0.25242287954177867,-0.8240396361512223,-0.3917725132177381,-0.3012554625170085,0.3650397603179094,0.461682391185521,-0.8461294117588936,-0.3077073244230757,-0.2370426258723879,0.3790150971256043,0.6193316266187274,-0.9787932658108218,0.004614663688537135,-0.9113658578360706,0.3823402479744131,-0.7472890355263124,-0.706383059510153,-0.7087988550338347,0.6754648300358337]],[[0.5566137321759776,-0.9971053441243294,-0.16042359537603623,0.32815545905460564,0.15108020802010325,0.1592508975452196,-0.3206481172171767,-0.16845353608673097,0.9753434065389421,-0.6244407531556684,-0.2629512375073446,-0.8966006306226064,0.6251748832228161,0.30160510133685525,0.1961869688298079,-0.02488094984317435],[-0.37352711895020096,0.474838391089738,-0.8932416724348138,-0.6405077879960657,0.9951343208414385,0.9234891304216184,0.027853856579333147,0.9339705725731258,0.6503752834529934,0.5894100514815075,-0.9566359242806084,-0.7910058905943744,0.4457751868886173,-0.7280560722569169,0.6294182048320236,0.4448853234559933],[-0.14217662281643495,-0.9628739785410727,-0.05830786980810343,-0.2664358302262433,0.9708542462060654,0.11769871291854272,0.02997110831389449,-0.8714070052831495,0.559277374492078,0.018463214621788904,-0.43896102709043205,-0.20121606839599027,-0.14126818253019469,-0.8374657341281582,-0.7296346763745234,0.40704381680053325],[-0.8733478722015233,-0.2500782051897956,-0.5346022952824416,-0.32137603806635795,0.45428629909741236,0.011119467755651868,0.9360506055920355,-0.3012253792928097,-0.4647155011567845,-0.8790337866571853,0.5847080956753392,-0.8889713775346264,-0.7349970591807398,0.7796544545201716,0.7260768700520721,-0.96239656589912],[-0.986166751110376,-0.6604370638825818,-0.3809181698106494,0.30441135423505905,0.5884616697226726,0.9752141399935965,0.013889482500842654,-0.15607689221583954,0.9264254824662359,-0.23744154437920084,0.9654668388929863,0.9288612426436313,-0.9564425862489179,0.1710482598981531,-0.19794184363954415,-0.8635025613502192],[0.5724715577377477,-0.5597563084173336,0.28594072677726334,0.6959529573391827,-0.4269589885802998,-0.7272115474064593,0.029914833983085476,-0.4553165691650669,-0.8733563811050464,0.9990958370599676,0.38929304295620515,-0.40351223718760076,0.3604510609832343,0.3996434969485714,0.039932631044558686,0.7197778021025196],[-0.22140139846265727,-0.0676348722797413,-0.700502110021775,-0.444647291589102,0.13436053735027675,-0.12062319493103235,0.7277172176125655,-0.5423768542475647,0.6549060832665945,-0.6860783682843374,-0.722341574294409,0.8466357961090143,0.8384280544896097,-0.421248602580496,-0.5497685439026254,0.35414430394680707],[0.23386240853427553,0.43273628488649996,0.3442226709002436,-0.6614772824391086,0.08579136210299243,0.722985622608042,0.03468533047007272,0.13357467379885524,-0.46757165965757963,-0.2486568195088692,-0.6329104798268226,0.8373483773278467,-0.3888047822648759,0.6952184419247689,-0.9968749073982002,0.6073167521042206],[0.9185376691463554,-0.2571875087658566,-0.5905807922778932,-0.9748417359807524,-0.3576933393170161,0.20912547018018435,-0.5363836403552273,0.06403974595555262,-0.042511990369836106,-0.16334090226383058,0.30316751388970564,0.6607177493118095,-0.8859542638333164,-0.26354562834915285,0.8931288843174898,0.1601886843600746],[-0.6286711009866535,-0.9529393343221324,-0.9462191617203723,-0.20988264141920476,-0.7316414698962901,-0.7546812667361098,0.9500862999247364,-0.003117656905213817,0.5037768543633541,-0.04728632600449689,-0.7076786487457003,-0.635952604929229,-0.5564779758332992,0.7519452482373521,-0.7610478937295078,0.10875092750106052],[-0.667763536823152,-0.7496174505142914,-0.3267897696861506,-0.4649357326723189,-0.18976868140957448,0.49259176549268036,-0.2015586508945142,0.048226445048505706,-0.15066610587537443,-0.24482761863427704,-0.9739303446485508,-0.27588623825865666,0.028953042161762532,-0.19821888791982056,-0.22119819490834924,-0.8831598647098966],[-0.820327166799256,0.8504159346393156,0.9430470490490306,0.16282761163954085,-0.8411191774491744,-0.9252182160724001,-0.37987439088442976,-0.08402533475329621,0.671987038445311,0.724915146796191,0.0685721655002487,-0.8479086687023409,0.7395270514311512,0.6318915162659788,0.9856822345312004,-0.08722249220971623],[-0.6369510548862611,0.16357202665777804,0.9072438019475602,0.2602173700052055,0.14339608625132927,-0.6279961797052409,-0.7761119292732119,0.141333014830332,0.3348207812678252,0.1860083779441779,0.25769009993957326,0.3852995693651855,-0.171744708267195,0.43305264062318205,-0.959848059926879,-0.5662052009601122],[-0.19664994958632231,-0.6687804505056021,-0.40243077203817235,0.7126335475472922,0.1696581868368825,0.8411339867550298,0.15010831986585949,0.6673843096363843,-0.6973878435029044,-0.28772433755319815,0.3173691826508058,-0.6207869618733564,-0.5822082334780214,0.7978877758762892,0.6052472872099086,-0.8110253332057766],[-0.8753910411772767,-0.12881077057558699,0.7112805205215702,-0.222113408986639,0.8694990499101056,-0.7901979479903152,-0.007593979512785953,0.015559647348865724,-0.7142110220803746,0.5064898484764915,-0.5930400338579207,0.6009140537692224,-0.4183288341962883,-0.4707115244781086,-0.39037387840033144,-0.307516495621579],[-0.3657244969925002,0.7131576116809031,0.5065417985364138,0.40683834213145875,0.8397244510459632,0.8609420520811928,0.6645898375356207,0.6037788301859526,-0.4942621356828898,0.522727563149163,0.14190127001045116,-0.4014730189308189,-0.7380573757022737,0.600387485474414,-0.2420254830683004,-0.514949422525127]],[[0.5701750739544389,0.3853800964753553,-0.5105044180211875,-0.5913079421601068,-0.4668301802261956,0.5064071870843727,-0.2643339980674564,-0.7832902620763678,-0.5557266498991491,0.969422310091459,-0.2920711950028174,-0.7843747762284656,0.15577049828646317,-0.14885499644232425,0.2567571903382282,-0.12331876337361747],[-0.6496667896948942,-0.0014109283755066038,0.5155414519653192,0.7612594062090206,0.49874749719795153,0.9919728342169907,-0.5513759923537673,0.14493997869958042,0.029264249254507657,-0.7371406102651843,-0.4782102398389876,0.7948280636473588,0.8281043307285616,0.8624689301026405,-0.04775965355949108,-0.008060953165295537],[-0.6410657960029069,0.3757221429326276,0.36914234110155286,0.9196190637366604,0.34379815214065124,-0.16757340428249767,0.5541634563262621,-0.7051395085889647,0.6074085672618268,-0.7612085430203228,0.23332865438340944,0.30427888571234574,-0.25133957994993317,-0.7884509840989189,-0.5822843446239072,-0.5549492625695196],[-0.8547763534936874,-0.32112133827206657,-0.47461318290133825,0.6208440909877839,-0.18139841727826855,0.26104379338198225,0.8098235558942033,-0.006365245270423703,-0.7685059261022293,0.7264000759038431,0.9450729430080087,-0.6421344188999694,0.5913861082091896,-0.16019569615755502,-0.2890808636328379,-0.5141098353181217],[0.9912110810944439,0.3206947835760965,0.6668704773207881,0.21431443769728276,0.5463668218502971,-0.23409766281554578,0.49314143599392946,0.48387727232162314,-0.11267174464940055,-0.262349946338885,-0.5244395554488501,0.1409551955243229,-0.9679303962640255,-0.12187650197994859,-0.5938063487186631,-0.8129340684327389],[-0.6232313921572126,-0.8629793615481645,-0.36124886530671363,0.369514211107818,0.6020946983468631,-0.9661120418057236,0.7363374447710687,-0.7168335931761458,0.37894184421683175,0.6422808827261628,0.9640721323155255,-0.712288605502704,0.7203023466563105,0.28051599397046667,0.08997057780363482,-0.009077945064605686],[-0.301223117729696,0.6288905067791268,-0.8030279723721616,-0.5749330528709384,-0.6400187003409958,-0.5916869228499371,0.10686554758848832,0.3101806923296464,-0.780782410793075,0.9476478723501178,0.6618462074139595,-0.15691846043806912,0.41839171463282243,0.5960886647627834,-0.8388256008034003,-0.617727540419319],[0.9119572201307236,0.8240673962796765,-0.4063176305578575,0.6360829956164658,-0.26641254924245006,0.8182815054321955,0.8786147285042509,-0.7780914263110494,0.16519748531829448,-0.12789275600605254,0.46915275467215034,-0.5665457501635922,0.3647082204437413,0.1303768245482404,-0.577202312645321,0.734742753798225],[0.6404705586927073,0.23693289015924401,-0.7755114258432627,0.6852875550688728,0.27077946964359123,-0.6140703517249859,0.08498599490248893,0.4297950384395399,0.26449432617564783,0.8053643571304789,0.9119552843842325,0.29899781002802683,-0.2830996427357877,-0.3828435656889897,0.2537633241413264,-0.47216478577854026]]],"biases":[[-0.2123039893630887,0.19619339553147297,-0.8973765513606891,0.7469969500227203,-0.6661048009914068,-0.045257435100426235,-0.9185134517970823,-0.5748798193479696,-0.9114307842016509,0.3274373010099696,-0.859629464071257,0.10512809959738201,-0.7482271821021689,0.03366188053632735,-0.271633869683388,0.8363216393369641],[0.4294915206783214,0.7773544177960869,0.36371326071002885,-0.6173971910339895,0.17259527033027888,0.21384793305230332,-0.43718832241227723,0.7757747621275137,0.9004546031535163,0.873863935311463,0.3923620419817606,0.030425278495297192,0.19518653411008513,0.8722054853397858,-0.5827907899198741,0.33292160962515815],[-0.43833688635305634,0.8299093314115273,-0.8913510737819457,0.22243225170891368,0.056466123709888016,0.8803551010117379,0.16299245067747536,0.06736896645520307,-0.5313083755409549]]}
];