export default {"weights":[[[-0.7288019658311247,-0.5417300484365803,-0.47941843165452713,-0.5335728491440528,-0.5417124594364653,0.8032133354189637,0.22119766493690562,0.062479016723839376,-0.6196047858111791,-0.08170920352376498,0.782068164206664,-0.13810253165619057,0.12632348610878363,-0.5442419609180242,-0.0678379860024565,0.9619719294371656,0.697638352621659,-0.7017474134885506,-0.8684413584723423,-0.5056531338593016,-0.39915576254027796,0.1391479693159683,-0.6907880355583949,0.6953767383005496,-0.14770756335270452,0.3377220921095416,0.07784016417043516],[-0.11651937305161297,0.7435577286517527,0.8662500985378365,-0.08043449700237781,-0.3701692113714308,0.522067762886171,-0.7646363857876066,0.9922442771013906,0.015945288511704625,0.8798340685533961,-0.5379320888854093,0.34694466723758755,0.7538379348704498,0.6334759267082171,0.5095176551248057,-0.7040290331932146,-0.8717258081359773,-0.8974298903186879,0.16073978864500527,0.9152976093835044,0.00689336783658101,0.4748517955243057,0.6443805530325575,-0.09034893398445742,-0.1830132468342729,-0.9050605140127472,0.6995472286327895],[0.9282961222278909,0.7635783691815048,-0.7350182025534164,-0.7890785088198644,-0.7376088849141471,-0.5834665165982056,-0.016597649872514886,-0.02438874141022218,0.7100016734389323,-0.36778433360326623,0.4459874068079648,-0.6125028502297951,-0.3294926012278019,0.8257781397315558,-0.17518381220004642,0.41888146636896995,-0.80434280166312,-0.8454805022856986,0.7839634256267272,-0.7324366964154057,0.3478580516587839,0.6712959663286528,0.06323121626455475,-0.012625184286409574,-0.9781291589845948,-0.0022189588287067075,0.1943318598350814],[-0.38042911127926926,-0.7025525704832685,-0.5294834772173727,-0.022303723679093057,0.9624475782534248,-0.6803429881161405,0.020559386794607892,0.5052667659763892,-0.5282491460118064,-0.12308489071257123,-0.6754397397471181,0.3603753965184482,-0.5759273302838932,0.9518290476298779,0.0925748984030128,0.17259714389875036,-0.5835198978824989,0.004415306991837564,0.5099145067912927,0.584447513433636,-0.02021778478852987,0.21326450716410372,-0.2101396291997375,-0.36865551899974225,-0.2823516297567541,-0.06369030773577045,0.36777818488311054],[-0.13659245678020904,-0.9278624573022802,0.6971535072791304,-0.8970239486892613,0.15023714970653046,0.7203379293239123,-0.5432196953586113,0.8846485833622553,-0.1838420301343704,0.9063862388131416,0.409151591524076,-0.1507799207156948,-0.8586285608318471,-0.30830928112063116,-0.28020141394747133,0.24759569308018659,0.3977953060311572,0.9561953165077592,0.44416497678387845,-0.06803443519146057,-0.8017523358739398,-0.5168754272245688,-0.15092056235295725,-0.5447884991378622,-0.048245147591652326,-0.22209760544804036,0.15925587540241137],[0.9642839549265232,-0.1602022606471296,-0.5113929076134789,0.28429149239423523,-0.8789778746834318,0.25550843371768384,-0.9493892996575592,-0.9641498007403104,-0.8190760409768063,0.250056672608193,-0.5387734061787639,-0.2790246538351586,0.30456704063426265,-0.6248877544741318,-0.20422769790379647,-0.5990218161201386,-0.07886001147795518,0.3526537228291331,-0.703380825740707,0.34281662405354085,0.5339759088233511,-0.7095114490122447,0.3039994906827732,0.7949996944699236,-0.7697719649158143,-0.36559637490859886,-0.5179327857023108],[-0.4220294603345893,0.9889506202717588,0.7143493704517145,-0.19764655522264007,-0.4978272937181698,0.30646789242361283,0.9882223839050446,-0.8856670037853434,0.5041110965927738,-0.5752258370836203,-0.8884387084997201,-0.36132826502309223,-0.016424147304369807,0.8840245879166431,0.23016573647401373,-0.9214238167065312,0.9814668696786484,-0.9850897879566092,-0.6411517098062416,-0.11780372547959006,0.6637600752994013,-0.8619440293756075,0.578223481187234,-0.41722093411943195,0.8541310856228637,0.05070141115576199,0.10585234188302017],[0.5659417542672402,-0.6694163236065216,-0.042345826013893806,-0.16103729901070585,-0.46962849602110124,0.6967055664195834,-0.8140565035787257,0.8612754651093693,-0.7866151606323748,-0.7631671621983731,-0.8472292213218009,-0.14636865200469895,0.2522327588199311,-0.15114435397196413,-0.4849046347638999,-0.5242616965660889,0.12496017194945797,0.7314318255724954,-0.6249803580514741,0.3077035648658506,-0.25538139773717683,-0.07692919854096525,-0.2872768767917826,0.5902573825449999,0.5215607457422475,0.05761231301901937,0.8132862276569033],[-0.9592050514223867,-0.15544140224281344,-0.7077714686558672,-0.11998290396327116,0.3276607954875872,0.7664681033325489,-0.2535037804391833,-0.6282321047006914,-0.5859228921057493,0.733151621423664,0.3241310731201543,0.5408636793216326,-0.24910758775084352,-0.3314082765064077,0.5004854104724181,-0.9327717749359326,0.5258510223156141,0.045168234142897834,0.53848779426353,-0.4625415746762487,-0.3872962460917426,-0.09127605057633792,-0.832371429275494,-0.3889963188534522,-0.6135007345823258,0.24664279898688157,-0.4900283965403731],[0.07726033702976709,0.9152708626458188,0.27219244658498365,0.46434662921532466,0.025659943873870716,0.28781071020605786,-0.9496833962075804,0.8093264747819635,0.6048095640829039,0.7456788918937951,-0.9653966217668621,0.17436153935913712,-0.2392783562862837,-0.20008794314655898,-0.5205032281921413,-0.020201647270268186,-0.21351024077108027,-0.06694735708899024,0.3261226960298145,0.995615036809236,0.6414352700397412,0.23463122861969987,0.8599673826307566,0.25822706621922986,0.5945662288154985,0.9881144942977076,-0.232268735631187],[-0.12281824976983069,0.2821296957504704,-0.8126850690380936,-0.27862264243795565,-0.7884177409760409,0.929764911771112,-0.5392585183206458,0.6415806113661233,0.16530716214946262,0.4563961004481101,0.06419721940048007,0.21792785238956336,0.749985646620591,-0.7059289498767471,0.7693729625360146,0.9279096583889448,-0.24318779597392615,0.8480685898950839,0.0912737920739346,0.05473467720330705,-0.8582372380984467,-0.3261941046373962,-0.8875509998812676,-0.8320366617844908,-0.1071039649502934,0.030555222986322406,-0.2556825439428012],[0.8011627738601224,0.7144325699030274,0.44600213031119207,0.28457183207853154,0.2829179105352946,-0.4788958403152539,-0.5367474874418989,-0.9876607727047539,0.8426034013027603,0.3340249662836752,0.8304049180066615,0.6733333083249207,-0.7387962070851835,-0.7253547120817379,-0.9529900510792872,0.32092894261538385,0.7376063926855396,-0.7281495726562519,-0.2971754918534466,0.6505407471888591,-0.4043498574290685,0.10263706962657171,0.17644513431815012,-0.8861900503750881,0.3725410026225182,-0.25080752479007407,0.1978322054203181],[-0.9715700698255056,0.35885815985367175,-0.5634690284025532,-0.14652181491817773,0.5224968420806504,-0.4756841838699182,-0.7326372528719496,-0.6602408193530698,0.16894736597120996,-0.23345402184586783,0.9689049830024503,-0.7513512356351897,-0.1892613134674841,0.5616027712506675,0.691735141613302,-0.9999131863786461,-0.7259590666664129,0.5923492692057493,0.37496430356800614,-0.22237157109459238,-0.35222777853110765,-0.2604023369190531,-0.8611356937059056,0.2309059676594094,-0.44896798324617704,-0.3521248009797846,-0.6355435300968564],[0.5042909949832532,-0.7757969027415785,-0.9280743999024543,-0.34713667063817866,0.1322538352406175,-0.5161521448083097,0.8188360387457636,0.7431609725996933,-0.6984515029133807,-0.8587787341485984,0.7182192647748651,0.0026567668336427985,0.7240258521245795,0.3102199987571357,-0.5656668427338936,0.8568505025486606,-0.3924337402507603,-0.1071298549641666,0.29599824029151556,0.4764634178372904,-0.9066984477148115,-0.15086821118329752,-0.8120976693024486,-0.6181513626464779,0.43192139234592997,-0.8460641912053948,0.35174633002060984],[-0.4848291880791793,0.5304351291347564,-0.06659484894132905,0.7955289644274224,-0.3609643547039294,0.7916916847461271,0.5907324730716716,0.19280760586394985,-0.5989128645521875,0.06556442717200772,0.039640246075737906,-0.5609213809758447,0.14275889042219791,0.11440018268571883,0.593964056018363,-0.6597622845460998,-0.01583084981084637,0.34682130261036814,-0.9954700907332281,0.6473036987381819,-0.23346884518310906,-0.3195319400451502,0.11789053126701221,-0.32664071187051746,-0.511007570019343,-0.434797494674672,-0.07686519538877734],[0.4720169325403898,-0.6536360028275148,0.7366240755338858,-0.9963350422750135,-0.14742333901470772,-0.7378546476070276,0.6550027425247236,-0.05937015057069095,0.46305014282100077,-0.4789355978649392,0.6585128733326764,0.7038388968765692,-0.06287491909843146,0.9324365507293377,0.3776865461328822,-0.12168569170664423,0.7907615052658663,0.3041875843951347,-0.997050460687356,-0.5625456409109901,-0.8979060104490193,0.3731974560472655,-0.8080824070890826,-0.6190990138960477,0.9224178476734135,0.8400304739731399,0.4389866941180336]],[[-0.617525961939803,0.4153891186556904,-0.7526882640368728,0.028751650020784947,0.5001617335248336,-0.7210680543238683,0.08603868698411743,0.5733524279951703,0.8992900117118898,0.5430197715532663,0.5519587846821707,0.216958665181473,-0.520455509416017,-0.9986410974227073,-0.7587096358776448,-0.46482594189709747],[-0.013367215146152578,-0.7873124760220103,0.6273099679788205,0.8848295753726463,0.6541414137004473,-0.4216748690291747,0.3460908438448991,-0.6062465122202796,-0.39246300988546823,0.46077794337083233,-0.8647072553567581,0.6024964812288451,0.7045924724067034,0.8530337755753772,0.97720284208759,0.06488742718280305],[0.9134608523116179,-0.7695888561563522,0.3422015331430477,-0.9909034449625787,-0.624921177610053,0.36387577628155965,0.06805040514247551,-0.725171084475503,-0.5234843274580103,-0.5263876586224612,-0.5630814511757589,0.06577289392812125,0.5393861481462703,-0.020512535941249688,0.6120031979044183,-0.9103306006151359],[0.6345339008416477,-0.007229651028566764,-0.94653805253277,-0.019765611051739462,0.9298027871864112,-0.3859725548986206,-0.06557731516383836,0.8899731123015768,-0.07006122034381823,0.49244075446983127,0.6101551112715766,0.8641494806419128,0.7204203574921264,-0.0594424504711073,0.37770463902588514,-0.36781749795887153],[-0.8127093396227463,-0.6289085369290959,-0.8981575467041822,-0.8156170342734028,0.3382844197189194,0.10510210846622892,0.9488596611598084,-0.2168226090986174,0.8116635034668294,-0.4804244624881946,-0.1258798143585942,-0.9377722343584352,0.8062855146139158,0.5088875609217682,0.4837302230213725,-0.9991918331420417],[-0.1308307390370591,0.9946428686772855,0.14949178993357926,-0.5382050653612458,-0.9662023368956074,0.10505430608860689,0.9429958924493236,-0.3648063796272103,-0.5457888656753287,0.17591690822821926,0.01439122617061539,0.7348222223711178,0.7553452844376438,-0.07361882161707367,0.9764252703435576,-0.17093685226131283],[0.037747638480543966,-0.23247228846421253,0.2809823203059927,0.022451463238039704,0.8229612787192928,0.7050189242845808,-0.9830836790986686,-0.05624493877706582,-0.4055673564407112,-0.8890251564485094,0.6644219375805864,-0.08485301014912272,0.32125593089933213,-0.11752446294860697,-0.691778899542522,0.24758810570303025],[0.7880302333407849,-0.8201707783946053,-0.9492859936754829,0.380379350656352,-0.9395297305285268,-0.36396982670685807,-0.5400690026172437,0.7422560944264895,0.9081125425882601,0.3294936428573565,0.8552130939438225,-0.382081977744436,-0.03391627056180546,0.15715566336766962,0.3934312741569057,-0.555782289613791],[0.3851702770146477,0.12281370736847386,0.4142583719928181,0.5673730244217201,0.6782955334478422,0.2563468800007178,-0.9158707886485908,0.7631839026983025,-0.2664187638394466,-0.5290361641776435,-0.5173830125308707,0.08535660373343568,0.5478566745692173,-0.8046516573018745,0.8500917441511961,0.496054429930489],[0.13424225232345766,0.9643416006581895,-0.8714829737351426,0.04539404700233307,-0.3597269614384211,-0.5762939732499803,-0.09482429542015991,0.8030668824720273,-0.3343186973237331,-0.9990843051283735,-0.5945240493837969,-0.8153671879746573,0.4098092468343211,0.938183869935814,0.6629654399544429,0.1448041780477447],[0.18266125136027078,0.5253986778325483,-0.577080158505328,0.7253830821550711,0.36059433674710295,-0.45589608758874256,0.8387100704436703,0.38424327952584836,0.9247578793815938,0.42527006671129186,0.322091081220369,0.11869682407999793,0.8181256788792308,0.39187618124536394,-0.9672442985399257,-0.6454502088306362],[0.9402644196896479,0.3198136071031681,0.32700871809516974,-0.4562830285420718,0.13607442114692514,-0.20295221827238263,-0.6242495109630721,0.13935083876700638,0.20879393393708323,-0.09293997338155346,-0.73759941830428,-0.3832916957445094,-0.38734576008084387,0.7835693106200079,0.09156301766246422,0.15983771860944707],[0.012234120037494467,-0.12232675617635191,-0.5268257136049987,0.5160545248411967,-0.08872901440891345,-0.5930317614792351,-0.831577936893312,0.4192489573640654,0.04592660607735777,-0.29919733667745607,-0.567145605380099,-0.6764005946474625,-0.7791638353077941,0.5502774596700415,-0.08608253410620259,0.002304937097286519],[-0.7795925690540377,0.8916333749531922,-0.2847190596171312,-0.3740320264451711,0.03165782951959306,0.08992347080533802,-0.3282655827183172,-0.8834288561980301,-0.6102177100659918,0.7824401512382235,-0.9134388278813503,-0.10698399181730656,-0.00271868054960267,0.2331010254527679,0.6979916646635083,-0.5476306701072269],[0.7041953155551917,0.456464135703611,0.9224080055691939,-0.034897752148880024,0.8251532055722826,-0.5443099362214134,0.22311623326790064,-0.4235375085162141,0.2465000849176331,-0.6992068432560123,-0.012430482173805935,0.9555942143489808,0.7143298083362639,0.6653830894086457,-0.5504941420622038,0.6554439657185984],[0.41767725265153866,-0.7888940595209513,-0.21453409364942067,0.2571985417907716,-0.401171080041264,-0.5920212637088418,-0.5926346064280712,0.28698221282679093,0.5016253745791781,0.6534201420650012,0.39445033848220756,0.02722308284920638,-0.13267675226517506,-0.2403553600742292,0.9999289380133298,0.37509541098117394]],[[0.08521384474769711,0.9482638272884429,-0.49953336685007965,-0.8867314541122631,0.03588862242406243,0.43870668375037924,0.2681685973773642,-0.4934558024299496,0.7940440244506819,-0.1096499371200883,-0.7925807099336946,0.9278322735091562,-0.14869940213749233,-0.33138589595468737,0.9887182190287218,0.9681709731774437],[-0.047306902847458865,0.5594273261078753,-0.863101556958267,0.37939176575014333,0.6944862547633162,0.9947630383515653,-0.4788366807410833,0.8584931641902873,-0.7514704013232376,-0.9971845276269962,0.8836233453223281,0.38638097066095334,0.1261477026119575,0.28424060828039366,0.1124867742238651,0.484188936643398],[-0.8231000553618921,-0.2730512709177173,0.7381357157830917,0.5998082903146527,-0.25738994992414277,0.7736860371776553,-0.2025020475783217,0.5791483663398274,0.39055755527984415,0.345387183049223,-0.018222242235344854,-0.8233178192652391,0.18121265994951097,-0.1635470588339656,-0.885756981795911,0.8276032324709761],[0.6861961340921581,-0.518122908115056,-0.8410475271390303,0.3687647644148915,-0.2846572688025808,-0.8308158209388341,0.30498240258755205,0.11726647398866508,0.08909359893096935,-0.031122572364156387,0.3657050967897342,0.1559911381798078,0.18102566346055715,0.5089876111410101,-0.033617930722873446,-0.6826594899970129],[0.23194189240384544,0.30793668541073993,0.5049729295745213,-0.42879314829056137,0.8297935459171075,0.41530706548467,-0.9133626632077796,0.7017169966698775,0.2373405216729858,-0.9343549461632792,-0.41350129518817313,-0.44437551086604543,-0.6850323338437945,-0.4724261343587033,-0.30807681076266347,-0.5036016329913724],[-0.6496346130830015,0.4231020561165102,0.708682120103354,0.6710380851092275,-0.8014249594693261,-0.0463052479437005,0.521043451306463,-0.3321893384211938,-0.5427165801981433,0.8334673693085857,-0.7848999987499794,-0.08695327679144782,0.25830431122075037,0.8902902940600379,-0.9260470032951509,0.13325581843935774],[-0.0015409219049375977,-0.1717566207496275,-0.7708120266019853,0.3558365952699063,-0.3252456425543051,0.4198790326943409,-0.6631863629590229,-0.5877660118041064,-0.26997107019551514,-0.27102513147571816,-0.42390435048181363,0.8743271782130559,0.3760428637835438,-0.13911337966248372,-0.400250298119055,-0.2639633447272045],[-0.17354190793590973,0.5319042093265982,-0.49161865114373793,-0.2948630160885406,0.33275048599470436,0.8169365155313906,-0.573942075891857,-0.6506366853720889,0.421157047001703,0.25989156226561194,-0.993051271595029,-0.623449666814627,0.7240767297332225,0.5269511192421255,-0.9525477645827833,0.8845708857705388],[0.7165136752799932,0.24794666953499922,-0.3875489137758308,-0.2287655589757822,0.6155874450651702,-0.77430613280919,0.7051820833406968,0.24567254802492222,-0.22381397483911325,0.08122192910067971,0.5461569250015579,-0.7730490392946212,0.6313135699976526,-0.15215572596902227,0.9200916975279081,0.022385725824987546]]],"biases":[[0.11385665600089778,-0.36481014172495296,-0.760328112683935,-0.18263622420203518,0.39368147062096526,0.7584713063506126,-0.6917528025615445,0.40891801026824126,-0.048759241698457245,-0.7580557284625762,0.5726551250216785,-0.3251332027479341,-0.9929309787361422,-0.03813429399481372,0.3589503374382894,0.15923196315137256],[0.06761877350806778,0.9283594880925028,-0.6241721376686775,-0.772851500790984,0.20759170465442978,0.37593775207493696,-0.5261096748126555,0.8546851592286488,0.7498493326906179,-0.3850530421630176,-0.24805833264571664,-0.4741398265814696,0.8164531699781747,0.17050748887980527,0.5093330707289296,-0.9831093933473496],[0.3241222895598601,0.4360258845637439,-0.2464619886576802,0.47730336584370736,0.9804027379361875,0.8023850087238005,-0.7044107335512897,0.6448476481434207,-0.22933516839522516]]};